dense/kernel:0
(70, 32)
[[-1.79376770e-02  5.03496714e-02 -6.18440323e-02 ... -1.51580155e-01
  -1.18307866e-01 -1.79766878e-01]
 [-2.01571435e-01  1.59989551e-01  2.14038223e-01 ... -8.81987996e-03
   1.35969475e-01  2.58929636e-02]
 [-2.04617903e-01  3.51368114e-02 -7.05668479e-02 ...  1.13173105e-01
  -2.39020184e-01 -2.17496902e-01]
 ...
 [-1.67746678e-01  1.37739435e-01  1.81561247e-01 ... -1.09895460e-01
  -1.29596293e-01 -6.20560884e-01]
 [-1.52484179e-01 -6.80055562e-03 -2.96804547e-01 ...  9.86069590e-02
   8.39579105e-03 -4.06085581e-01]
 [-3.15989852e-02 -1.98661327e-01  5.48549354e-01 ...  4.96371285e-05
   3.84742022e-02 -3.29064876e-01]]
dense/bias:0
(32,)
[-8.57242942e-03 -7.84174129e-02 -1.77332982e-01 -1.46826161e-02
 -6.15946919e-05 -4.89779636e-02 -4.22130991e-03 -5.92001807e-03
  6.39716815e-03  5.76093532e-02  1.12639768e-02 -8.50326288e-03
 -2.51433570e-02  2.25400887e-02  0.00000000e+00 -3.67060788e-02
  0.00000000e+00 -9.65794101e-02  3.51678357e-02 -5.80948107e-02
  3.75260301e-02 -1.48518626e-02 -2.27179781e-01 -3.10818735e-03
 -1.06811546e-01  5.35796303e-03  4.86726873e-02 -8.38250145e-02
  1.38674881e-02  2.13377234e-02 -7.96057843e-03 -3.07695870e-03]
dense_1/kernel:0
(32, 1)
[[-0.2870297 ]
 [ 0.02199873]
 [ 0.0390161 ]
 [ 0.03066037]
 [ 0.03752826]
 [-0.01845167]
 [-0.18820356]
 [ 0.27614987]
 [ 0.12738061]
 [-0.01079166]
 [-0.14293525]
 [ 0.01632761]
 [ 0.2935996 ]
 [-0.01486725]
 [ 0.13015181]
 [ 0.32042998]
 [-0.09922111]
 [ 0.05435106]
 [-0.17829093]
 [ 0.06592389]
 [-0.01725701]
 [ 0.00650577]
 [ 0.15653539]
 [-0.1832725 ]
 [-0.08461484]
 [-0.26266056]
 [ 0.01247248]
 [ 0.05813022]
 [ 0.244727  ]
 [ 0.26715732]
 [ 0.40502968]
 [-0.06041543]]
dense_1/bias:0
(1,)
[-0.00095526]
