dense/kernel:0
(31, 32)
[[-1.55311391e-01 -7.71166906e-02  7.76522011e-02 -2.23262813e-02
  -5.83721995e-02  2.58718580e-01 -4.80427295e-02 -3.01993359e-02
   7.81231746e-02 -1.67654648e-01  1.70855582e-01 -1.46958515e-01
  -6.16642041e-03  1.29772753e-01  7.28654340e-02  2.71716099e-02
  -2.75038499e-02  1.21156268e-01 -1.97313324e-01  2.91111887e-01
  -2.95918081e-02 -1.06113337e-01  1.08390331e-01 -7.32906982e-02
   1.96024492e-01 -9.80128646e-02 -3.14079851e-01  1.00370824e-01
  -8.32021832e-02 -1.54819757e-01  2.36100137e-01  3.73273864e-02]
 [ 1.01019375e-01  3.26560557e-01  4.55037318e-03  2.55071759e-01
   2.59055167e-01  7.91497007e-02 -1.47624791e-01  1.55707747e-01
  -3.25840622e-01  1.74715295e-02  2.12453768e-01 -5.72555838e-03
   1.43552795e-01 -3.31654906e-01  5.22837564e-02 -9.20953080e-02
  -1.92295432e-01 -1.14251813e-02 -1.05024405e-01 -2.10308090e-01
   1.74732745e-01  1.09968511e-02 -1.18033238e-01  2.29498938e-01
  -8.35385732e-03 -2.17651263e-01 -2.41486415e-01 -2.21670106e-01
   1.96528003e-01 -1.48112297e-01  3.29967262e-03  1.15399587e-03]
 [ 4.18750383e-02  1.85206503e-01  2.37854645e-01 -1.91414446e-01
   2.06119910e-01 -2.41812915e-02  1.03575885e-01 -1.09244280e-01
  -2.05033854e-01  8.99977982e-02 -2.03125536e-01 -2.16326296e-01
   6.55763745e-02  5.73327914e-02  2.51623452e-01  8.22123885e-03
   9.10617411e-02 -1.14751860e-01 -3.42407465e-01  2.50131011e-01
   1.77167878e-01  1.16053201e-01 -2.13447556e-01 -1.28736809e-01
   9.17373225e-03 -1.40662372e-01  2.61148006e-01  2.34816775e-01
   4.33482789e-02  1.30073398e-01  1.54863164e-01  3.02849740e-01]
 [-1.19857170e-01  3.74318540e-01  9.37431902e-02 -8.55916515e-02
  -2.10764736e-01 -2.52700627e-01 -3.88746820e-02  2.53730863e-01
   3.51055831e-01  2.45069668e-01  2.76540399e-01 -2.42908895e-01
  -9.54537317e-02  1.26383174e-02 -2.02316567e-01  5.18333912e-02
  -1.10217519e-01  3.70167270e-02 -2.51746714e-01  3.26963887e-02
   3.28911357e-02  2.33681053e-02  1.37246758e-01  1.02956563e-01
   7.96896741e-02 -2.32151430e-03  1.69150531e-01 -6.99932203e-02
   1.60954878e-01  7.07007498e-02  3.14821713e-02 -3.56639773e-02]
 [ 3.69707756e-02 -8.00829157e-02 -1.55966178e-01  3.14631760e-02
  -2.13762537e-01 -2.37558767e-01 -2.64280260e-01  3.04628313e-02
   7.09420815e-02 -7.51880631e-02 -8.91127437e-02  2.90071040e-01
   1.27669990e-01 -4.88687977e-02  2.96872377e-01  5.63858263e-02
  -9.43236575e-02 -9.49352607e-02 -1.35848805e-01 -2.47748494e-01
   9.69105214e-03  5.82156405e-02 -2.52382994e-01  2.27441043e-01
   6.08054772e-02 -2.21810624e-01 -2.78615236e-01  1.24277964e-01
  -2.94204175e-01 -2.09765971e-01  1.83056012e-01  2.49705315e-01]
 [ 2.96390235e-01  1.45900220e-01  6.52533770e-02 -6.37528151e-02
  -2.40962245e-02 -8.31026584e-02  2.57552236e-01 -1.98858301e-03
   2.78391123e-01 -2.52885014e-01 -6.69770408e-03  2.98711117e-02
   8.98581445e-02 -2.81356126e-02 -5.39582036e-02  1.61166847e-01
  -3.11699938e-02  2.67127126e-01 -1.00351498e-01  1.88097179e-01
  -1.02955766e-01 -3.94678451e-02 -1.33860901e-01 -3.30852121e-01
   1.19962409e-01  1.29097521e-01 -5.03993295e-02  1.19874224e-01
   7.25659952e-02 -2.11390078e-01 -8.23778957e-02  2.01407671e-01]
 [ 2.52414495e-01  5.91210835e-02 -2.12076023e-01  2.11830854e-01
   2.85615712e-01  1.78141683e-01 -1.49584860e-01 -1.58802226e-01
  -1.27416611e-01 -1.92042381e-01  1.55718297e-01  2.48716906e-01
   1.16230682e-01 -1.64646000e-01  8.17145333e-02  2.19999164e-01
   3.24207842e-01 -2.36837789e-02 -1.67321905e-01 -4.66745868e-02
   5.47938943e-02  1.66304767e-01  3.77774388e-02  1.27437398e-01
   1.29878029e-01  2.64916159e-02  2.82397687e-01 -2.61213988e-01
  -4.09344554e-01 -1.60716891e-01 -5.21362163e-02 -7.12139830e-02]
 [ 7.74327666e-04  3.04969382e-02  4.08139266e-02 -1.46326885e-01
   9.83076021e-02 -2.46322200e-01 -1.33502811e-01  8.13925266e-02
   2.43940160e-01 -1.19758002e-01 -5.81334941e-02  3.61339711e-02
  -5.46778776e-02  7.30574429e-02  3.92811894e-01  9.72223803e-02
  -1.25939250e-01  1.14661016e-01 -1.97294757e-01  1.15951851e-01
  -5.61344773e-02  1.24101795e-01 -1.52884454e-01  2.01641992e-01
  -1.79354087e-01  3.21369134e-02 -3.41419093e-02 -1.30009308e-01
  -1.85464963e-01 -1.28768906e-01  3.27915370e-01 -2.75652707e-02]
 [-2.95824409e-01  2.58268006e-02  2.90744305e-01  3.13091162e-03
   1.64272323e-01  2.90680379e-01 -1.49592683e-01  8.61367062e-02
   2.60533422e-01 -1.16445094e-01  7.51233250e-02 -1.00932777e-01
  -1.55663893e-01 -9.33696628e-02  7.81957656e-02  2.85888433e-01
   2.35175759e-01  2.76276469e-01 -2.49032229e-01 -1.84680223e-01
   2.17208475e-01  1.00155361e-01 -1.67735994e-01 -1.08739957e-01
   1.30545288e-01  2.24368244e-01  1.99696064e-01 -2.34944642e-01
  -2.56807089e-01 -3.61179560e-02  9.06636119e-02  1.66589338e-02]
 [ 1.66458078e-02  1.65068254e-01 -2.29898207e-02  3.71872485e-02
   1.18176527e-01  2.04585448e-01 -1.49671599e-01  1.86158307e-02
   1.61650449e-01 -5.00896089e-02  6.41032234e-02 -1.99900325e-02
   1.18655279e-01  2.23037414e-02  2.71386951e-01  2.42626160e-01
  -1.09817855e-01  7.70213529e-02  2.22950161e-01 -2.30159864e-01
   3.31611163e-03 -5.60707897e-02  1.78220585e-01  1.71218187e-01
   1.16331406e-01 -9.32906792e-02  7.05382898e-02 -3.42095946e-03
  -1.97051659e-01 -8.47943947e-02  1.04859143e-01 -2.19262559e-02]
 [ 8.22860301e-02 -3.26600261e-02 -1.06741846e-01 -2.01640688e-02
  -1.84608959e-02  5.04437163e-02  5.13333865e-02 -1.29830930e-02
  -2.02324599e-01  3.11504286e-02  2.65784025e-01  7.13995993e-02
   1.86409876e-01  6.16872218e-03  2.40748867e-01  2.65917957e-01
   1.28826454e-01  9.42539126e-02 -6.79868609e-02  1.12873219e-01
  -1.33255824e-01  6.27236813e-02  6.07980043e-02 -4.51950803e-02
   5.54397665e-02  4.92254533e-02 -2.99964219e-01 -2.24978477e-01
   2.23566126e-02 -2.93489210e-02 -1.35236740e-01 -1.23884805e-01]
 [ 2.48296723e-01  5.81221245e-02  2.01733321e-01  1.93757966e-01
  -1.53205574e-01 -3.79855633e-02  3.24024200e-01 -2.21975327e-01
   2.27114692e-01  6.12033717e-02  1.77176401e-01 -1.56524435e-01
   1.78917408e-01 -1.51284754e-01 -5.52897751e-02  2.07189858e-01
  -7.69342706e-02  1.74200520e-01 -4.99116480e-02 -1.04914010e-02
  -1.60449207e-01 -2.77833659e-02 -3.06074709e-01 -2.89467216e-01
   2.03645661e-01 -1.03052042e-01  8.30757543e-02  2.18018711e-01
   2.29862556e-01 -8.66078883e-02 -3.51048857e-02 -3.17453086e-01]
 [ 6.46774322e-02 -1.07751064e-01  1.33597389e-01 -9.42934528e-02
   1.48609683e-01  2.46930882e-01  1.00827836e-01 -5.62766055e-03
  -1.65114328e-01 -2.80075639e-01  2.43106149e-02 -3.32402401e-02
  -3.41137409e-01  1.13610305e-01  7.64463767e-02  1.52209058e-01
   2.96138585e-01 -1.45431429e-01 -2.93484271e-01  1.14015061e-02
  -9.91683900e-02 -1.21711716e-01  7.33343363e-02  2.55517084e-02
  -2.29117125e-01  9.36149135e-02  1.53387085e-01 -3.03814530e-01
   2.69276239e-02  4.77284342e-02 -3.21208499e-02  1.20251119e-01]
 [ 1.14012405e-01  1.89588800e-01  1.83612570e-01  7.57994354e-02
  -5.25665507e-02  2.25070611e-01  5.67782717e-03  5.83222061e-02
  -8.27375799e-02 -1.10653996e-01  1.56847268e-01 -2.69936264e-01
  -8.50768462e-02 -4.28387821e-02  1.00592867e-01 -8.90753269e-02
   2.58373797e-01  1.97665960e-01  1.90939352e-01  8.98828804e-02
  -3.25882584e-01 -6.90952316e-02 -9.82389320e-03  1.02778645e-02
  -1.03283517e-01  2.40194336e-01 -2.74533659e-01  1.89656287e-01
  -7.72819147e-02  3.02805126e-01 -2.38640040e-01 -1.47906721e-01]
 [ 1.27795190e-01  5.68117835e-02 -1.16839446e-01  5.00011519e-02
  -4.06422541e-02 -1.75097570e-01  1.70220494e-01  1.17894925e-01
   1.69166774e-01 -3.32337469e-01 -1.69309497e-01  2.69707441e-02
  -5.24121881e-01 -1.52621847e-02  1.21063039e-01 -3.56015190e-02
  -1.64215609e-01  5.25887646e-02 -4.86504845e-02  1.26258224e-01
  -2.23997712e-01  2.31852114e-01  9.65223983e-02 -1.81852758e-01
   5.95767647e-02  2.67340332e-01  2.62735099e-01 -1.85663328e-01
  -1.51310280e-01 -1.42631620e-01 -2.61775374e-01  1.09099425e-01]
 [ 2.16200918e-01  1.48052871e-01  1.49737522e-01  8.55560154e-02
  -2.71333933e-01 -3.62326205e-02  3.73801179e-02 -7.05510005e-02
   1.89118534e-01  2.62738824e-01 -4.51316051e-02 -1.90430395e-02
  -2.03310954e-03 -7.22351000e-02 -2.24779204e-01  1.82872146e-01
  -2.86834426e-02  2.07752421e-01 -4.54807281e-02  2.57552296e-01
  -8.38659629e-02 -2.30650097e-01  1.11926220e-01 -1.80452973e-01
   2.71032840e-01 -6.50406033e-02  3.21245462e-01  4.07103926e-01
   9.74051878e-02  3.72854859e-01  2.78161559e-02  1.81617271e-02]
 [ 7.45802000e-02  1.03835352e-01 -6.43901452e-02 -5.71004599e-02
   4.57859077e-02  1.69042245e-01 -3.09614420e-01 -2.28326693e-01
   2.40074709e-01 -2.81910986e-01  1.96349263e-01  4.58337456e-01
  -2.86340952e-01  2.34247178e-01  2.61329681e-01  2.47177724e-02
   2.63891041e-01 -2.24977478e-01 -1.15662038e-01  2.70522147e-01
   9.75543633e-02  3.07867955e-03  1.15808010e-01  1.05453521e-01
   6.97792917e-02  1.06223881e-01  6.79579750e-03  1.64464824e-02
   9.29539949e-02 -1.83297440e-01 -1.53503880e-01 -5.46535432e-01]
 [ 2.09149420e-01 -2.62304783e-01  1.29731819e-01  8.34657550e-02
   1.42872175e-02 -1.36103988e-01  5.90609312e-02 -3.16881910e-02
   2.78859735e-01 -1.98214412e-01  2.61607230e-01 -5.36421001e-01
   2.49278292e-01 -6.43528938e-01  2.32821126e-02 -7.85561278e-03
   1.15616266e-02 -1.69703111e-01 -2.01255634e-01 -2.35035792e-01
   1.94451898e-01  1.36480495e-01  1.94195919e-02 -1.12996385e-01
   5.93689941e-02  3.47782433e-01 -1.47199810e-01 -5.00162989e-02
   8.32626969e-02 -3.65213826e-02 -5.38049281e-01  8.26182291e-02]
 [-4.79908139e-02 -4.01567258e-02  2.90263444e-01 -1.15286913e-02
   1.85095549e-01 -2.85506863e-02  8.21731091e-02  3.08083773e-01
  -3.85607064e-01 -1.02174934e-02  1.62705407e-01  2.54263375e-02
  -7.09429264e-01 -6.72755539e-02 -2.57118400e-02  3.61603737e-01
   2.91534930e-01 -9.75819305e-03 -9.51149780e-03  1.88428700e-01
  -2.59990096e-01  3.60331923e-01 -6.15613200e-02 -1.85329452e-01
   1.74595773e-01  1.29943982e-01  7.43171992e-03  1.12624653e-01
   2.65575320e-01 -1.17607206e-01  1.19286828e-01  1.28300831e-01]
 [ 9.84656066e-02  6.57059113e-03  1.62705943e-01  1.48860872e-01
   9.31590125e-02  1.15255930e-01 -3.27905436e-05 -1.22122765e-01
   1.91736072e-02  2.40360975e-01 -8.98455605e-02 -1.57305449e-01
  -1.56954765e-01 -5.35981841e-02 -2.37199202e-01 -2.27404147e-01
  -2.54646391e-01 -2.32203975e-01  1.99794471e-01  8.21032375e-02
   1.27214804e-01  2.78731566e-02 -4.87926789e-02 -4.67398390e-02
   2.95008980e-02 -7.31432363e-02 -1.11806840e-01  3.52409810e-01
   1.48236498e-01 -5.85899130e-03 -1.77928030e-01 -7.04750642e-02]
 [ 3.33463401e-02 -1.10211000e-01  1.73984781e-01 -7.08639175e-02
   5.60787842e-02 -1.98112354e-01 -1.20608039e-01 -1.83323026e-01
  -2.42334470e-01 -3.26425552e-01  1.24358691e-01 -2.69081354e-01
  -6.53502107e-01  2.44534925e-01  5.61481081e-02  1.10403709e-01
   1.39824137e-01 -1.67903695e-02 -3.03124696e-01 -1.74595639e-01
  -2.15857759e-01  9.55573246e-02  1.82817549e-01 -3.45650613e-02
  -1.22845862e-02 -2.02116027e-01  2.95929164e-01 -7.63212368e-02
   1.42727012e-03  2.18868285e-01 -2.00637162e-01  2.01195881e-01]
 [-3.87678146e-02 -1.43289179e-01 -1.18698336e-01 -2.12478414e-01
  -3.74104559e-01  9.62205753e-02 -2.34337509e-01 -2.23047510e-01
  -9.08545703e-02 -4.48226370e-02 -2.62398452e-01  2.17739850e-01
  -6.07553720e-01  3.65685761e-01 -1.79747105e-01  3.58141065e-01
  -1.40192419e-01 -8.96557793e-03 -1.35655805e-01  2.52617031e-01
  -2.23624632e-02  1.78317249e-01 -1.69827163e-01  3.24058712e-01
  -9.12423655e-02 -1.81848601e-01  1.63077384e-01  2.20596939e-01
   9.65743139e-02  1.35566548e-01 -1.10254139e-01 -3.50054377e-03]
 [ 2.39176508e-02 -9.13787782e-02 -4.55753133e-02 -2.46392056e-01
  -9.98294055e-02 -2.41417721e-01  1.47304669e-01 -8.06614906e-02
   1.42920554e-01  2.06059515e-01 -5.90807870e-02 -1.22057214e-01
  -2.25986943e-01 -1.66065395e-01  1.61640607e-02  1.59212425e-01
  -2.54345596e-01 -9.02766436e-02 -2.66209394e-01  7.27075562e-02
  -5.42894863e-02  3.51740152e-01 -2.03242809e-01  5.40334545e-02
   1.28869247e-02 -2.01774657e-01  1.30474746e-01 -1.81478679e-01
  -5.10500297e-02  3.29011120e-02  2.27026105e-01  4.47708555e-03]
 [-9.02319327e-02 -2.09149346e-01  1.11399785e-01  5.22337072e-02
   6.65916502e-02 -1.33695140e-01  2.09050402e-01 -2.13646695e-01
  -1.17121212e-01 -1.45634532e-01  3.13427657e-01 -1.72343239e-01
  -2.54395574e-01 -1.27005326e-02 -1.51849821e-01  2.35304087e-01
   2.80367643e-01 -3.21787506e-01  1.07348831e-02  2.20781136e-02
  -7.80164227e-02  1.16744563e-01 -2.48134688e-01 -2.51457654e-02
  -6.52488396e-02 -1.41664417e-02 -5.05731255e-02  1.16885982e-01
  -4.69292179e-02 -1.56259850e-01 -1.22598715e-01 -2.45839104e-01]
 [ 1.88882854e-02  1.70515686e-01 -9.82505605e-02 -1.48569688e-01
  -9.03395191e-02  1.03653841e-01 -7.10657239e-02 -4.51953150e-02
  -2.05074206e-01 -3.07508737e-01  1.04129516e-01  1.99130148e-01
  -5.42088635e-02  1.30953938e-01  9.05113220e-02 -6.26377463e-02
   6.96600303e-02  6.92957640e-03 -3.04500550e-01  3.72192353e-01
   1.89275250e-01 -1.32235631e-01  1.25358537e-01  3.64406630e-02
   4.42865193e-02 -3.47373366e-01 -1.54499903e-01  1.03640594e-01
   1.61965758e-01 -5.88188693e-02  4.60681885e-01  4.32016291e-02]
 [ 1.27939105e-01  2.10523382e-01 -2.90079806e-02  4.19553481e-02
   2.32895017e-01 -1.68336052e-02 -1.28980175e-01  1.21605761e-01
  -1.53184935e-01 -1.00547522e-01 -5.31193167e-02  1.98243842e-01
   1.41012698e-01 -8.67780894e-02  2.27841228e-01 -1.15652293e-01
  -3.95249203e-02 -4.61083883e-03  1.47940189e-01 -5.99595606e-02
   1.13305867e-01  2.06233874e-01 -2.11599171e-01  1.45254254e-01
  -2.26889011e-02  1.86933830e-01  1.59197599e-01 -1.67521104e-01
  -3.24855596e-01 -3.57194155e-01 -7.87644684e-02  2.39246324e-01]
 [-5.80435153e-03 -1.00227237e-01  1.50632337e-01 -4.34084088e-02
  -2.17032041e-02 -1.47150522e-02  2.56358176e-01 -7.24160075e-02
   9.21503454e-02 -2.58648805e-02 -5.42948693e-02 -1.93754002e-01
  -2.72200733e-01  3.15165217e-03  2.10302278e-01  2.99392641e-01
   1.98615372e-01 -1.23030931e-01 -2.96008885e-01  4.34815511e-02
  -2.41669878e-01  2.19822228e-01 -3.78133655e-02 -3.12973559e-01
  -2.30343062e-02  1.45390168e-01 -1.32774755e-01 -7.83779323e-02
  -4.22532037e-02  2.84469008e-01 -2.06824824e-01 -1.14318512e-01]
 [ 5.05175963e-02  1.59645125e-01  5.83739616e-02 -1.96414873e-01
  -1.03196323e-01  2.55998313e-01  2.34423786e-01  2.48610616e-01
   2.28835344e-01  1.44143039e-02  2.30222434e-01 -1.52164530e-02
  -3.24312150e-02  1.86406925e-01 -1.95741668e-01  2.04582036e-01
   1.82836488e-01 -1.15296848e-01 -2.19421923e-01  1.15449786e-01
  -3.67513061e-01 -1.67901561e-01  2.83294886e-01 -1.61628619e-01
   1.21189386e-01  8.60832259e-02  4.36614044e-02  1.87848568e-01
   5.59873171e-02 -1.05151452e-01 -1.22943878e-01  1.64987192e-01]
 [ 2.09260937e-02  5.30189797e-02 -1.92705154e-01  1.95726275e-01
   2.19244972e-01  3.30162942e-01  1.90248340e-01  1.41771227e-01
   1.79660499e-01 -6.76795989e-02 -7.38658458e-02  1.85080066e-01
  -2.98671335e-01 -8.47435072e-02 -5.54259159e-02  9.98231173e-02
  -1.98223993e-01 -1.96263015e-01  3.26613784e-02  4.81538882e-04
  -3.20460469e-01 -8.23861584e-02  1.57853141e-02 -1.51548818e-01
  -3.32411304e-02 -2.27365211e-01  2.31898591e-01  6.60734028e-02
  -2.78320104e-01 -2.03167960e-01  3.59808415e-01  1.78086653e-01]
 [ 1.25577629e-01  2.18479618e-01  1.37802288e-01  1.92472771e-01
   1.49093270e-01 -5.37959263e-02  1.11670434e-01 -2.04302326e-01
   1.40888438e-01 -5.00853593e-03  1.23601861e-01 -1.00648612e-01
  -7.86374390e-01 -1.78185597e-01 -1.47149384e-01  7.57183805e-02
  -2.16271952e-01 -3.86105152e-03  6.65754005e-02  1.41170159e-01
   1.07068911e-01 -1.14194497e-01 -3.97600560e-03 -1.74138963e-01
   1.48461565e-01 -2.62073874e-01  3.48879397e-01  6.14391267e-02
  -9.99687314e-02  1.63002163e-01  1.73528925e-01  1.11592546e-01]
 [-8.65759980e-03 -2.39081755e-01 -2.53727227e-01 -2.48320419e-02
   4.67433259e-02  5.38803674e-02 -2.42948562e-01  9.80500504e-02
   2.75331616e-01  1.94974929e-01 -1.13496847e-01  8.99457186e-02
  -5.71990982e-02  3.54599357e-02  2.75769010e-02 -2.68711537e-01
  -6.37604445e-02  1.89741150e-01  1.83705300e-01 -5.42756841e-02
   1.60380378e-01  1.02990523e-01  2.86641359e-01  4.17508513e-01
  -2.04808027e-01  1.35585070e-01 -1.78338706e-01 -1.92057267e-01
  -1.43108442e-01  3.12678032e-02  6.54864758e-02  8.74036923e-03]]
dense/bias:0
(32,)
[-1.2740181e-03  3.0988364e-02  9.9062612e-03 -8.2106469e-03
  3.7716866e-02  1.9188814e-02 -3.0017761e-03 -2.7804380e-02
  2.4700070e-02 -4.1763406e-02 -4.6216795e-04 -3.4433834e-02
 -5.5077460e-02  2.4363805e-02  2.5663247e-02 -4.6420610e-09
  2.3593605e-02 -2.5964806e-02 -3.4756262e-02  6.8220109e-02
 -6.8727247e-02  1.8459003e-02  2.6539013e-02 -3.7917379e-02
  2.0109287e-02 -7.7302583e-02 -1.1679575e-01  2.4703488e-02
  4.2471353e-02  2.9320128e-02 -2.5892897e-02  3.7378091e-02]
dense_1/kernel:0
(32, 1)
[[ 0.23159337]
 [-0.0179863 ]
 [ 0.16852383]
 [-0.17937721]
 [-0.17794494]
 [ 0.22278067]
 [-0.280721  ]
 [-0.03733036]
 [-0.12801252]
 [-0.25626218]
 [-0.03148909]
 [-0.14966808]
 [ 0.06906085]
 [ 0.2057682 ]
 [-0.2933979 ]
 [ 0.31057498]
 [-0.27699146]
 [-0.02735109]
 [-0.08260542]
 [ 0.05072605]
 [-0.00468005]
 [ 0.3215195 ]
 [-0.05617971]
 [ 0.24854892]
 [-0.25573242]
 [-0.01914387]
 [ 0.03844345]
 [ 0.03159159]
 [ 0.0968639 ]
 [ 0.02143868]
 [ 0.05916297]
 [ 0.04187617]]
dense_1/bias:0
(1,)
[0.00363754]
